digraph Tree {
node [shape=box, style="filled", color="black"] ;
0 [label="AverageStepLength <= 0.419\ngini = 0.591\nsamples = 856\nvalue = [488, 144, 200, 24]\nclass = Sober", fillcolor="#e5813970"] ;
1 [label="SumDistance <= 29.308\ngini = 0.304\nsamples = 57\nvalue = [47, 4, 6, 0]\nclass = Sober", fillcolor="#e58139cd"] ;
0 -> 1 [labeldistance=2.5, labelangle=45, headlabel="True"] ;
2 [label="SumDistance <= 25.422\ngini = 0.381\nsamples = 39\nvalue = [30, 4, 5, 0]\nclass = Sober", fillcolor="#e58139bc"] ;
1 -> 2 ;
3 [label="SumDistance <= 11.947\ngini = 0.291\nsamples = 30\nvalue = [25, 2, 3, 0]\nclass = Sober", fillcolor="#e58139d0"] ;
2 -> 3 ;
4 [label="gini = 0.427\nsamples = 15\nvalue = [11, 2, 2, 0]\nclass = Sober", fillcolor="#e58139b1"] ;
3 -> 4 ;
5 [label="gini = 0.124\nsamples = 15\nvalue = [14, 0, 1, 0]\nclass = Sober", fillcolor="#e58139ed"] ;
3 -> 5 ;
6 [label="gini = 0.593\nsamples = 9\nvalue = [5, 2, 2, 0]\nclass = Sober", fillcolor="#e581396d"] ;
2 -> 6 ;
7 [label="AverageStepLength <= 0.379\ngini = 0.105\nsamples = 18\nvalue = [17, 0, 1, 0]\nclass = Sober", fillcolor="#e58139f0"] ;
1 -> 7 ;
8 [label="gini = 0.198\nsamples = 9\nvalue = [8, 0, 1, 0]\nclass = Sober", fillcolor="#e58139df"] ;
7 -> 8 ;
9 [label="gini = 0.0\nsamples = 9\nvalue = [9, 0, 0, 0]\nclass = Sober", fillcolor="#e58139ff"] ;
7 -> 9 ;
10 [label="AverageStepLength <= 0.591\ngini = 0.605\nsamples = 799\nvalue = [441, 140, 194, 24]\nclass = Sober", fillcolor="#e5813968"] ;
0 -> 10 [labeldistance=2.5, labelangle=-45, headlabel="False"] ;
11 [label="SumDistance <= 18.628\ngini = 0.596\nsamples = 416\nvalue = [234, 93, 80, 9]\nclass = Sober", fillcolor="#e581396f"] ;
10 -> 11 ;
12 [label="AverageStepLength <= 0.481\ngini = 0.572\nsamples = 260\nvalue = [154, 48, 54, 4]\nclass = Sober", fillcolor="#e581397c"] ;
11 -> 12 ;
13 [label="AverageStepLength <= 0.432\ngini = 0.432\nsamples = 69\nvalue = [50, 6, 13, 0]\nclass = Sober", fillcolor="#e58139a8"] ;
12 -> 13 ;
14 [label="gini = 0.66\nsamples = 10\nvalue = [4, 3, 3, 0]\nclass = Sober", fillcolor="#e5813924"] ;
13 -> 14 ;
15 [label="gini = 0.361\nsamples = 59\nvalue = [46, 3, 10, 0]\nclass = Sober", fillcolor="#e58139bb"] ;
13 -> 15 ;
16 [label="AverageStepLength <= 0.491\ngini = 0.609\nsamples = 191\nvalue = [104, 42, 41, 4]\nclass = Sober", fillcolor="#e581396a"] ;
12 -> 16 ;
17 [label="gini = 0.562\nsamples = 11\nvalue = [4, 6, 1, 0]\nclass = Light", fillcolor="#47e53949"] ;
16 -> 17 ;
18 [label="gini = 0.601\nsamples = 180\nvalue = [100, 36, 40, 4]\nclass = Sober", fillcolor="#e581396d"] ;
16 -> 18 ;
19 [label="AverageStepLength <= 0.531\ngini = 0.625\nsamples = 156\nvalue = [80, 45, 26, 5]\nclass = Sober", fillcolor="#e5813950"] ;
11 -> 19 ;
20 [label="AverageStepLength <= 0.45\ngini = 0.644\nsamples = 87\nvalue = [42, 22, 21, 2]\nclass = Sober", fillcolor="#e581394e"] ;
19 -> 20 ;
21 [label="gini = 0.59\nsamples = 32\nvalue = [17, 11, 3, 1]\nclass = Sober", fillcolor="#e5813949"] ;
20 -> 21 ;
22 [label="gini = 0.646\nsamples = 55\nvalue = [25, 11, 18, 1]\nclass = Sober", fillcolor="#e5813930"] ;
20 -> 22 ;
23 [label="SumDistance <= 33.641\ngini = 0.578\nsamples = 69\nvalue = [38, 23, 5, 3]\nclass = Sober", fillcolor="#e5813953"] ;
19 -> 23 ;
24 [label="gini = 0.619\nsamples = 54\nvalue = [26, 20, 5, 3]\nclass = Sober", fillcolor="#e581392d"] ;
23 -> 24 ;
25 [label="gini = 0.32\nsamples = 15\nvalue = [12, 3, 0, 0]\nclass = Sober", fillcolor="#e58139bf"] ;
23 -> 25 ;
26 [label="SumDistance <= 1.488\ngini = 0.603\nsamples = 383\nvalue = [207, 47, 114, 15]\nclass = Sober", fillcolor="#e5813958"] ;
10 -> 26 ;
27 [label="gini = 0.444\nsamples = 9\nvalue = [6, 3, 0, 0]\nclass = Sober", fillcolor="#e581397f"] ;
26 -> 27 ;
28 [label="SumDistance <= 10.988\ngini = 0.603\nsamples = 374\nvalue = [201, 44, 114, 15]\nclass = Sober", fillcolor="#e5813955"] ;
26 -> 28 ;
29 [label="SumDistance <= 5.461\ngini = 0.604\nsamples = 211\nvalue = [108, 21, 74, 8]\nclass = Sober", fillcolor="#e581393f"] ;
28 -> 29 ;
30 [label="gini = 0.581\nsamples = 111\nvalue = [64, 12, 30, 5]\nclass = Sober", fillcolor="#e581396b"] ;
29 -> 30 ;
31 [label="gini = 0.604\nsamples = 100\nvalue = [44, 9, 44, 3]\nclass = Sober", fillcolor="#e5813900"] ;
29 -> 31 ;
32 [label="SumDistance <= 21.66\ngini = 0.592\nsamples = 163\nvalue = [93, 23, 40, 7]\nclass = Sober", fillcolor="#e581396e"] ;
28 -> 32 ;
33 [label="gini = 0.542\nsamples = 106\nvalue = [67, 12, 22, 5]\nclass = Sober", fillcolor="#e5813989"] ;
32 -> 33 ;
34 [label="gini = 0.654\nsamples = 57\nvalue = [26, 11, 18, 2]\nclass = Sober", fillcolor="#e5813934"] ;
32 -> 34 ;
}