digraph Tree {
node [shape=box, style="filled", color="black"] ;
0 [label="STD <= 2.231\ngini = 0.5\nsamples = 496\nvalue = [248, 248]", fillcolor="#e5813900"] ;
1 [label="STD <= 1.573\ngini = 0.365\nsamples = 212\nvalue = [161, 51]", fillcolor="#e58139ae"] ;
0 -> 1 [labeldistance=2.5, labelangle=45, headlabel="True"] ;
2 [label="Height <= 166.0\ngini = 0.21\nsamples = 109\nvalue = [96, 13]", fillcolor="#e58139dc"] ;
1 -> 2 ;
3 [label="STD <= 1.331\ngini = 0.42\nsamples = 10\nvalue = [7, 3]", fillcolor="#e5813992"] ;
2 -> 3 ;
4 [label="gini = 0.0\nsamples = 5\nvalue = [5, 0]", fillcolor="#e58139ff"] ;
3 -> 4 ;
5 [label="STD <= 1.501\ngini = 0.48\nsamples = 5\nvalue = [2, 3]", fillcolor="#399de555"] ;
3 -> 5 ;
6 [label="gini = 0.0\nsamples = 3\nvalue = [0, 3]", fillcolor="#399de5ff"] ;
5 -> 6 ;
7 [label="gini = 0.0\nsamples = 2\nvalue = [2, 0]", fillcolor="#e58139ff"] ;
5 -> 7 ;
8 [label="Age <= 30.0\ngini = 0.182\nsamples = 99\nvalue = [89, 10]", fillcolor="#e58139e2"] ;
2 -> 8 ;
9 [label="STD <= 0.963\ngini = 0.139\nsamples = 80\nvalue = [74, 6]", fillcolor="#e58139ea"] ;
8 -> 9 ;
10 [label="STD <= 0.948\ngini = 0.305\nsamples = 16\nvalue = [13, 3]", fillcolor="#e58139c4"] ;
9 -> 10 ;
11 [label="Weight <= 88.0\ngini = 0.133\nsamples = 14\nvalue = [13, 1]", fillcolor="#e58139eb"] ;
10 -> 11 ;
12 [label="gini = 0.0\nsamples = 11\nvalue = [11, 0]", fillcolor="#e58139ff"] ;
11 -> 12 ;
13 [label="Age <= 26.0\ngini = 0.444\nsamples = 3\nvalue = [2, 1]", fillcolor="#e581397f"] ;
11 -> 13 ;
14 [label="STD <= 0.934\ngini = 0.5\nsamples = 2\nvalue = [1, 1]", fillcolor="#e5813900"] ;
13 -> 14 ;
15 [label="gini = 0.0\nsamples = 1\nvalue = [0, 1]", fillcolor="#399de5ff"] ;
14 -> 15 ;
16 [label="gini = 0.0\nsamples = 1\nvalue = [1, 0]", fillcolor="#e58139ff"] ;
14 -> 16 ;
17 [label="gini = 0.0\nsamples = 1\nvalue = [1, 0]", fillcolor="#e58139ff"] ;
13 -> 17 ;
18 [label="gini = 0.0\nsamples = 2\nvalue = [0, 2]", fillcolor="#399de5ff"] ;
10 -> 18 ;
19 [label="Age <= 24.5\ngini = 0.089\nsamples = 64\nvalue = [61, 3]", fillcolor="#e58139f2"] ;
9 -> 19 ;
20 [label="Height <= 180.5\ngini = 0.142\nsamples = 39\nvalue = [36, 3]", fillcolor="#e58139ea"] ;
19 -> 20 ;
21 [label="Height <= 176.5\ngini = 0.236\nsamples = 22\nvalue = [19, 3]", fillcolor="#e58139d7"] ;
20 -> 21 ;
22 [label="STD <= 1.074\ngini = 0.117\nsamples = 16\nvalue = [15, 1]", fillcolor="#e58139ee"] ;
21 -> 22 ;
23 [label="STD <= 1.043\ngini = 0.32\nsamples = 5\nvalue = [4, 1]", fillcolor="#e58139bf"] ;
22 -> 23 ;
24 [label="gini = 0.0\nsamples = 4\nvalue = [4, 0]", fillcolor="#e58139ff"] ;
23 -> 24 ;
25 [label="gini = 0.0\nsamples = 1\nvalue = [0, 1]", fillcolor="#399de5ff"] ;
23 -> 25 ;
26 [label="gini = 0.0\nsamples = 11\nvalue = [11, 0]", fillcolor="#e58139ff"] ;
22 -> 26 ;
27 [label="STD <= 1.191\ngini = 0.444\nsamples = 6\nvalue = [4, 2]", fillcolor="#e581397f"] ;
21 -> 27 ;
28 [label="gini = 0.0\nsamples = 1\nvalue = [0, 1]", fillcolor="#399de5ff"] ;
27 -> 28 ;
29 [label="STD <= 1.365\ngini = 0.32\nsamples = 5\nvalue = [4, 1]", fillcolor="#e58139bf"] ;
27 -> 29 ;
30 [label="gini = 0.0\nsamples = 3\nvalue = [3, 0]", fillcolor="#e58139ff"] ;
29 -> 30 ;
31 [label="Weight <= 68.0\ngini = 0.5\nsamples = 2\nvalue = [1, 1]", fillcolor="#e5813900"] ;
29 -> 31 ;
32 [label="gini = 0.0\nsamples = 1\nvalue = [1, 0]", fillcolor="#e58139ff"] ;
31 -> 32 ;
33 [label="gini = 0.0\nsamples = 1\nvalue = [0, 1]", fillcolor="#399de5ff"] ;
31 -> 33 ;
34 [label="gini = 0.0\nsamples = 17\nvalue = [17, 0]", fillcolor="#e58139ff"] ;
20 -> 34 ;
35 [label="gini = 0.0\nsamples = 25\nvalue = [25, 0]", fillcolor="#e58139ff"] ;
19 -> 35 ;
36 [label="STD <= 1.512\ngini = 0.332\nsamples = 19\nvalue = [15, 4]", fillcolor="#e58139bb"] ;
8 -> 36 ;
37 [label="Height <= 173.0\ngini = 0.278\nsamples = 18\nvalue = [15, 3]", fillcolor="#e58139cc"] ;
36 -> 37 ;
38 [label="STD <= 1.335\ngini = 0.42\nsamples = 10\nvalue = [7, 3]", fillcolor="#e5813992"] ;
37 -> 38 ;
39 [label="STD <= 1.171\ngini = 0.278\nsamples = 6\nvalue = [5, 1]", fillcolor="#e58139cc"] ;
38 -> 39 ;
40 [label="Height <= 170.5\ngini = 0.444\nsamples = 3\nvalue = [2, 1]", fillcolor="#e581397f"] ;
39 -> 40 ;
41 [label="gini = 0.0\nsamples = 2\nvalue = [2, 0]", fillcolor="#e58139ff"] ;
40 -> 41 ;
42 [label="gini = 0.0\nsamples = 1\nvalue = [0, 1]", fillcolor="#399de5ff"] ;
40 -> 42 ;
43 [label="gini = 0.0\nsamples = 3\nvalue = [3, 0]", fillcolor="#e58139ff"] ;
39 -> 43 ;
44 [label="STD <= 1.455\ngini = 0.5\nsamples = 4\nvalue = [2, 2]", fillcolor="#e5813900"] ;
38 -> 44 ;
45 [label="gini = 0.0\nsamples = 2\nvalue = [0, 2]", fillcolor="#399de5ff"] ;
44 -> 45 ;
46 [label="gini = 0.0\nsamples = 2\nvalue = [2, 0]", fillcolor="#e58139ff"] ;
44 -> 46 ;
47 [label="gini = 0.0\nsamples = 8\nvalue = [8, 0]", fillcolor="#e58139ff"] ;
37 -> 47 ;
48 [label="gini = 0.0\nsamples = 1\nvalue = [0, 1]", fillcolor="#399de5ff"] ;
36 -> 48 ;
49 [label="STD <= 1.589\ngini = 0.466\nsamples = 103\nvalue = [65, 38]", fillcolor="#e581396a"] ;
1 -> 49 ;
50 [label="gini = 0.0\nsamples = 2\nvalue = [0, 2]", fillcolor="#399de5ff"] ;
49 -> 50 ;
51 [label="Age <= 30.0\ngini = 0.459\nsamples = 101\nvalue = [65, 36]", fillcolor="#e5813972"] ;
49 -> 51 ;
52 [label="Height <= 166.0\ngini = 0.48\nsamples = 80\nvalue = [48, 32]", fillcolor="#e5813955"] ;
51 -> 52 ;
53 [label="STD <= 2.084\ngini = 0.18\nsamples = 10\nvalue = [9, 1]", fillcolor="#e58139e3"] ;
52 -> 53 ;
54 [label="gini = 0.0\nsamples = 8\nvalue = [8, 0]", fillcolor="#e58139ff"] ;
53 -> 54 ;
55 [label="Weight <= 63.0\ngini = 0.5\nsamples = 2\nvalue = [1, 1]", fillcolor="#e5813900"] ;
53 -> 55 ;
56 [label="gini = 0.0\nsamples = 1\nvalue = [1, 0]", fillcolor="#e58139ff"] ;
55 -> 56 ;
57 [label="gini = 0.0\nsamples = 1\nvalue = [0, 1]", fillcolor="#399de5ff"] ;
55 -> 57 ;
58 [label="Weight <= 70.5\ngini = 0.493\nsamples = 70\nvalue = [39, 31]", fillcolor="#e5813934"] ;
52 -> 58 ;
59 [label="STD <= 1.837\ngini = 0.482\nsamples = 32\nvalue = [13, 19]", fillcolor="#399de551"] ;
58 -> 59 ;
60 [label="STD <= 1.817\ngini = 0.484\nsamples = 17\nvalue = [10, 7]", fillcolor="#e581394d"] ;
59 -> 60 ;
61 [label="Weight <= 67.0\ngini = 0.498\nsamples = 15\nvalue = [8, 7]", fillcolor="#e5813920"] ;
60 -> 61 ;
62 [label="Age <= 27.0\ngini = 0.48\nsamples = 10\nvalue = [4, 6]", fillcolor="#399de555"] ;
61 -> 62 ;
63 [label="STD <= 1.687\ngini = 0.32\nsamples = 5\nvalue = [1, 4]", fillcolor="#399de5bf"] ;
62 -> 63 ;
64 [label="Weight <= 64.0\ngini = 0.5\nsamples = 2\nvalue = [1, 1]", fillcolor="#e5813900"] ;
63 -> 64 ;
65 [label="gini = 0.0\nsamples = 1\nvalue = [1, 0]", fillcolor="#e58139ff"] ;
64 -> 65 ;
66 [label="gini = 0.0\nsamples = 1\nvalue = [0, 1]", fillcolor="#399de5ff"] ;
64 -> 66 ;
67 [label="gini = 0.0\nsamples = 3\nvalue = [0, 3]", fillcolor="#399de5ff"] ;
63 -> 67 ;
68 [label="STD <= 1.76\ngini = 0.48\nsamples = 5\nvalue = [3, 2]", fillcolor="#e5813955"] ;
62 -> 68 ;
69 [label="gini = 0.0\nsamples = 2\nvalue = [2, 0]", fillcolor="#e58139ff"] ;
68 -> 69 ;
70 [label="Weight <= 63.5\ngini = 0.444\nsamples = 3\nvalue = [1, 2]", fillcolor="#399de57f"] ;
68 -> 70 ;
71 [label="STD <= 1.808\ngini = 0.5\nsamples = 2\nvalue = [1, 1]", fillcolor="#e5813900"] ;
70 -> 71 ;
72 [label="gini = 0.0\nsamples = 1\nvalue = [1, 0]", fillcolor="#e58139ff"] ;
71 -> 72 ;
73 [label="gini = 0.0\nsamples = 1\nvalue = [0, 1]", fillcolor="#399de5ff"] ;
71 -> 73 ;
74 [label="gini = 0.0\nsamples = 1\nvalue = [0, 1]", fillcolor="#399de5ff"] ;
70 -> 74 ;
75 [label="STD <= 1.758\ngini = 0.32\nsamples = 5\nvalue = [4, 1]", fillcolor="#e58139bf"] ;
61 -> 75 ;
76 [label="gini = 0.0\nsamples = 3\nvalue = [3, 0]", fillcolor="#e58139ff"] ;
75 -> 76 ;
77 [label="STD <= 1.783\ngini = 0.5\nsamples = 2\nvalue = [1, 1]", fillcolor="#e5813900"] ;
75 -> 77 ;
78 [label="gini = 0.0\nsamples = 1\nvalue = [0, 1]", fillcolor="#399de5ff"] ;
77 -> 78 ;
79 [label="gini = 0.0\nsamples = 1\nvalue = [1, 0]", fillcolor="#e58139ff"] ;
77 -> 79 ;
80 [label="gini = 0.0\nsamples = 2\nvalue = [2, 0]", fillcolor="#e58139ff"] ;
60 -> 80 ;
81 [label="Weight <= 58.5\ngini = 0.32\nsamples = 15\nvalue = [3, 12]", fillcolor="#399de5bf"] ;
59 -> 81 ;
82 [label="gini = 0.0\nsamples = 1\nvalue = [1, 0]", fillcolor="#e58139ff"] ;
81 -> 82 ;
83 [label="STD <= 1.937\ngini = 0.245\nsamples = 14\nvalue = [2, 12]", fillcolor="#399de5d4"] ;
81 -> 83 ;
84 [label="STD <= 1.921\ngini = 0.408\nsamples = 7\nvalue = [2, 5]", fillcolor="#399de599"] ;
83 -> 84 ;
85 [label="gini = 0.0\nsamples = 5\nvalue = [0, 5]", fillcolor="#399de5ff"] ;
84 -> 85 ;
86 [label="gini = 0.0\nsamples = 2\nvalue = [2, 0]", fillcolor="#e58139ff"] ;
84 -> 86 ;
87 [label="gini = 0.0\nsamples = 7\nvalue = [0, 7]", fillcolor="#399de5ff"] ;
83 -> 87 ;
88 [label="Weight <= 89.0\ngini = 0.432\nsamples = 38\nvalue = [26, 12]", fillcolor="#e5813989"] ;
58 -> 88 ;
89 [label="Height <= 192.0\ngini = 0.311\nsamples = 26\nvalue = [21, 5]", fillcolor="#e58139c2"] ;
88 -> 89 ;
90 [label="Height <= 168.5\ngini = 0.18\nsamples = 20\nvalue = [18, 2]", fillcolor="#e58139e3"] ;
89 -> 90 ;
91 [label="STD <= 1.892\ngini = 0.444\nsamples = 3\nvalue = [2, 1]", fillcolor="#e581397f"] ;
90 -> 91 ;
92 [label="gini = 0.0\nsamples = 2\nvalue = [2, 0]", fillcolor="#e58139ff"] ;
91 -> 92 ;
93 [label="gini = 0.0\nsamples = 1\nvalue = [0, 1]", fillcolor="#399de5ff"] ;
91 -> 93 ;
94 [label="Age <= 18.5\ngini = 0.111\nsamples = 17\nvalue = [16, 1]", fillcolor="#e58139ef"] ;
90 -> 94 ;
95 [label="Height <= 182.5\ngini = 0.278\nsamples = 6\nvalue = [5, 1]", fillcolor="#e58139cc"] ;
94 -> 95 ;
96 [label="gini = 0.0\nsamples = 4\nvalue = [4, 0]", fillcolor="#e58139ff"] ;
95 -> 96 ;
97 [label="STD <= 1.907\ngini = 0.5\nsamples = 2\nvalue = [1, 1]", fillcolor="#e5813900"] ;
95 -> 97 ;
98 [label="gini = 0.0\nsamples = 1\nvalue = [0, 1]", fillcolor="#399de5ff"] ;
97 -> 98 ;
99 [label="gini = 0.0\nsamples = 1\nvalue = [1, 0]", fillcolor="#e58139ff"] ;
97 -> 99 ;
100 [label="gini = 0.0\nsamples = 11\nvalue = [11, 0]", fillcolor="#e58139ff"] ;
94 -> 100 ;
101 [label="STD <= 1.684\ngini = 0.5\nsamples = 6\nvalue = [3, 3]", fillcolor="#e5813900"] ;
89 -> 101 ;
102 [label="gini = 0.0\nsamples = 1\nvalue = [1, 0]", fillcolor="#e58139ff"] ;
101 -> 102 ;
103 [label="Weight <= 79.5\ngini = 0.48\nsamples = 5\nvalue = [2, 3]", fillcolor="#399de555"] ;
101 -> 103 ;
104 [label="STD <= 1.719\ngini = 0.5\nsamples = 4\nvalue = [2, 2]", fillcolor="#e5813900"] ;
103 -> 104 ;
105 [label="gini = 0.0\nsamples = 1\nvalue = [0, 1]", fillcolor="#399de5ff"] ;
104 -> 105 ;
106 [label="STD <= 2.028\ngini = 0.444\nsamples = 3\nvalue = [2, 1]", fillcolor="#e581397f"] ;
104 -> 106 ;
107 [label="gini = 0.0\nsamples = 2\nvalue = [2, 0]", fillcolor="#e58139ff"] ;
106 -> 107 ;
108 [label="gini = 0.0\nsamples = 1\nvalue = [0, 1]", fillcolor="#399de5ff"] ;
106 -> 108 ;
109 [label="gini = 0.0\nsamples = 1\nvalue = [0, 1]", fillcolor="#399de5ff"] ;
103 -> 109 ;
110 [label="STD <= 1.861\ngini = 0.486\nsamples = 12\nvalue = [5, 7]", fillcolor="#399de549"] ;
88 -> 110 ;
111 [label="STD <= 1.652\ngini = 0.245\nsamples = 7\nvalue = [1, 6]", fillcolor="#399de5d4"] ;
110 -> 111 ;
112 [label="gini = 0.0\nsamples = 1\nvalue = [1, 0]", fillcolor="#e58139ff"] ;
111 -> 112 ;
113 [label="gini = 0.0\nsamples = 6\nvalue = [0, 6]", fillcolor="#399de5ff"] ;
111 -> 113 ;
114 [label="Height <= 187.5\ngini = 0.32\nsamples = 5\nvalue = [4, 1]", fillcolor="#e58139bf"] ;
110 -> 114 ;
115 [label="STD <= 1.91\ngini = 0.444\nsamples = 3\nvalue = [2, 1]", fillcolor="#e581397f"] ;
114 -> 115 ;
116 [label="gini = 0.0\nsamples = 1\nvalue = [1, 0]", fillcolor="#e58139ff"] ;
115 -> 116 ;
117 [label="STD <= 2.077\ngini = 0.5\nsamples = 2\nvalue = [1, 1]", fillcolor="#e5813900"] ;
115 -> 117 ;
118 [label="gini = 0.0\nsamples = 1\nvalue = [0, 1]", fillcolor="#399de5ff"] ;
117 -> 118 ;
119 [label="gini = 0.0\nsamples = 1\nvalue = [1, 0]", fillcolor="#e58139ff"] ;
117 -> 119 ;
120 [label="gini = 0.0\nsamples = 2\nvalue = [2, 0]", fillcolor="#e58139ff"] ;
114 -> 120 ;
121 [label="STD <= 1.974\ngini = 0.308\nsamples = 21\nvalue = [17, 4]", fillcolor="#e58139c3"] ;
51 -> 121 ;
122 [label="STD <= 1.897\ngini = 0.463\nsamples = 11\nvalue = [7, 4]", fillcolor="#e581396d"] ;
121 -> 122 ;
123 [label="Height <= 182.5\ngini = 0.245\nsamples = 7\nvalue = [6, 1]", fillcolor="#e58139d4"] ;
122 -> 123 ;
124 [label="gini = 0.0\nsamples = 6\nvalue = [6, 0]", fillcolor="#e58139ff"] ;
123 -> 124 ;
125 [label="gini = 0.0\nsamples = 1\nvalue = [0, 1]", fillcolor="#399de5ff"] ;
123 -> 125 ;
126 [label="Height <= 173.0\ngini = 0.375\nsamples = 4\nvalue = [1, 3]", fillcolor="#399de5aa"] ;
122 -> 126 ;
127 [label="gini = 0.0\nsamples = 2\nvalue = [0, 2]", fillcolor="#399de5ff"] ;
126 -> 127 ;
128 [label="STD <= 1.945\ngini = 0.5\nsamples = 2\nvalue = [1, 1]", fillcolor="#e5813900"] ;
126 -> 128 ;
129 [label="gini = 0.0\nsamples = 1\nvalue = [0, 1]", fillcolor="#399de5ff"] ;
128 -> 129 ;
130 [label="gini = 0.0\nsamples = 1\nvalue = [1, 0]", fillcolor="#e58139ff"] ;
128 -> 130 ;
131 [label="gini = 0.0\nsamples = 10\nvalue = [10, 0]", fillcolor="#e58139ff"] ;
121 -> 131 ;
132 [label="STD <= 3.423\ngini = 0.425\nsamples = 284\nvalue = [87, 197]", fillcolor="#399de58e"] ;
0 -> 132 [labeldistance=2.5, labelangle=-45, headlabel="False"] ;
133 [label="STD <= 2.654\ngini = 0.494\nsamples = 115\nvalue = [51, 64]", fillcolor="#399de534"] ;
132 -> 133 ;
134 [label="Weight <= 58.5\ngini = 0.422\nsamples = 43\nvalue = [13, 30]", fillcolor="#399de591"] ;
133 -> 134 ;
135 [label="gini = 0.0\nsamples = 2\nvalue = [2, 0]", fillcolor="#e58139ff"] ;
134 -> 135 ;
136 [label="Weight <= 73.5\ngini = 0.393\nsamples = 41\nvalue = [11, 30]", fillcolor="#399de5a1"] ;
134 -> 136 ;
137 [label="STD <= 2.439\ngini = 0.227\nsamples = 23\nvalue = [3, 20]", fillcolor="#399de5d9"] ;
136 -> 137 ;
138 [label="STD <= 2.349\ngini = 0.375\nsamples = 12\nvalue = [3, 9]", fillcolor="#399de5aa"] ;
137 -> 138 ;
139 [label="gini = 0.0\nsamples = 8\nvalue = [0, 8]", fillcolor="#399de5ff"] ;
138 -> 139 ;
140 [label="Age <= 27.0\ngini = 0.375\nsamples = 4\nvalue = [3, 1]", fillcolor="#e58139aa"] ;
138 -> 140 ;
141 [label="gini = 0.0\nsamples = 3\nvalue = [3, 0]", fillcolor="#e58139ff"] ;
140 -> 141 ;
142 [label="gini = 0.0\nsamples = 1\nvalue = [0, 1]", fillcolor="#399de5ff"] ;
140 -> 142 ;
143 [label="gini = 0.0\nsamples = 11\nvalue = [0, 11]", fillcolor="#399de5ff"] ;
137 -> 143 ;
144 [label="Age <= 28.5\ngini = 0.494\nsamples = 18\nvalue = [8, 10]", fillcolor="#399de533"] ;
136 -> 144 ;
145 [label="Height <= 180.5\ngini = 0.48\nsamples = 10\nvalue = [6, 4]", fillcolor="#e5813955"] ;
144 -> 145 ;
146 [label="gini = 0.0\nsamples = 3\nvalue = [3, 0]", fillcolor="#e58139ff"] ;
145 -> 146 ;
147 [label="STD <= 2.311\ngini = 0.49\nsamples = 7\nvalue = [3, 4]", fillcolor="#399de540"] ;
145 -> 147 ;
148 [label="gini = 0.0\nsamples = 2\nvalue = [2, 0]", fillcolor="#e58139ff"] ;
147 -> 148 ;
149 [label="Height <= 187.5\ngini = 0.32\nsamples = 5\nvalue = [1, 4]", fillcolor="#399de5bf"] ;
147 -> 149 ;
150 [label="gini = 0.0\nsamples = 3\nvalue = [0, 3]", fillcolor="#399de5ff"] ;
149 -> 150 ;
151 [label="Height <= 192.0\ngini = 0.5\nsamples = 2\nvalue = [1, 1]", fillcolor="#e5813900"] ;
149 -> 151 ;
152 [label="gini = 0.0\nsamples = 1\nvalue = [1, 0]", fillcolor="#e58139ff"] ;
151 -> 152 ;
153 [label="gini = 0.0\nsamples = 1\nvalue = [0, 1]", fillcolor="#399de5ff"] ;
151 -> 153 ;
154 [label="STD <= 2.342\ngini = 0.375\nsamples = 8\nvalue = [2, 6]", fillcolor="#399de5aa"] ;
144 -> 154 ;
155 [label="gini = 0.0\nsamples = 3\nvalue = [0, 3]", fillcolor="#399de5ff"] ;
154 -> 155 ;
156 [label="STD <= 2.424\ngini = 0.48\nsamples = 5\nvalue = [2, 3]", fillcolor="#399de555"] ;
154 -> 156 ;
157 [label="gini = 0.0\nsamples = 2\nvalue = [2, 0]", fillcolor="#e58139ff"] ;
156 -> 157 ;
158 [label="gini = 0.0\nsamples = 3\nvalue = [0, 3]", fillcolor="#399de5ff"] ;
156 -> 158 ;
159 [label="STD <= 2.717\ngini = 0.498\nsamples = 72\nvalue = [38, 34]", fillcolor="#e581391b"] ;
133 -> 159 ;
160 [label="gini = 0.0\nsamples = 7\nvalue = [7, 0]", fillcolor="#e58139ff"] ;
159 -> 160 ;
161 [label="Age <= 20.5\ngini = 0.499\nsamples = 65\nvalue = [31, 34]", fillcolor="#399de517"] ;
159 -> 161 ;
162 [label="STD <= 2.792\ngini = 0.346\nsamples = 9\nvalue = [7, 2]", fillcolor="#e58139b6"] ;
161 -> 162 ;
163 [label="gini = 0.0\nsamples = 1\nvalue = [0, 1]", fillcolor="#399de5ff"] ;
162 -> 163 ;
164 [label="Height <= 169.5\ngini = 0.219\nsamples = 8\nvalue = [7, 1]", fillcolor="#e58139db"] ;
162 -> 164 ;
165 [label="STD <= 3.319\ngini = 0.5\nsamples = 2\nvalue = [1, 1]", fillcolor="#e5813900"] ;
164 -> 165 ;
166 [label="gini = 0.0\nsamples = 1\nvalue = [0, 1]", fillcolor="#399de5ff"] ;
165 -> 166 ;
167 [label="gini = 0.0\nsamples = 1\nvalue = [1, 0]", fillcolor="#e58139ff"] ;
165 -> 167 ;
168 [label="gini = 0.0\nsamples = 6\nvalue = [6, 0]", fillcolor="#e58139ff"] ;
164 -> 168 ;
169 [label="Age <= 33.0\ngini = 0.49\nsamples = 56\nvalue = [24, 32]", fillcolor="#399de540"] ;
161 -> 169 ;
170 [label="STD <= 2.988\ngini = 0.466\nsamples = 46\nvalue = [17, 29]", fillcolor="#399de56a"] ;
169 -> 170 ;
171 [label="Height <= 186.5\ngini = 0.498\nsamples = 15\nvalue = [8, 7]", fillcolor="#e5813920"] ;
170 -> 171 ;
172 [label="Height <= 172.5\ngini = 0.473\nsamples = 13\nvalue = [8, 5]", fillcolor="#e5813960"] ;
171 -> 172 ;
173 [label="STD <= 2.781\ngini = 0.444\nsamples = 6\nvalue = [2, 4]", fillcolor="#399de57f"] ;
172 -> 173 ;
174 [label="STD <= 2.735\ngini = 0.444\nsamples = 3\nvalue = [2, 1]", fillcolor="#e581397f"] ;
173 -> 174 ;
175 [label="gini = 0.0\nsamples = 1\nvalue = [0, 1]", fillcolor="#399de5ff"] ;
174 -> 175 ;
176 [label="gini = 0.0\nsamples = 2\nvalue = [2, 0]", fillcolor="#e58139ff"] ;
174 -> 176 ;
177 [label="gini = 0.0\nsamples = 3\nvalue = [0, 3]", fillcolor="#399de5ff"] ;
173 -> 177 ;
178 [label="STD <= 2.769\ngini = 0.245\nsamples = 7\nvalue = [6, 1]", fillcolor="#e58139d4"] ;
172 -> 178 ;
179 [label="Height <= 176.0\ngini = 0.5\nsamples = 2\nvalue = [1, 1]", fillcolor="#e5813900"] ;
178 -> 179 ;
180 [label="gini = 0.0\nsamples = 1\nvalue = [0, 1]", fillcolor="#399de5ff"] ;
179 -> 180 ;
181 [label="gini = 0.0\nsamples = 1\nvalue = [1, 0]", fillcolor="#e58139ff"] ;
179 -> 181 ;
182 [label="gini = 0.0\nsamples = 5\nvalue = [5, 0]", fillcolor="#e58139ff"] ;
178 -> 182 ;
183 [label="gini = 0.0\nsamples = 2\nvalue = [0, 2]", fillcolor="#399de5ff"] ;
171 -> 183 ;
184 [label="Height <= 159.0\ngini = 0.412\nsamples = 31\nvalue = [9, 22]", fillcolor="#399de597"] ;
170 -> 184 ;
185 [label="gini = 0.0\nsamples = 1\nvalue = [1, 0]", fillcolor="#e58139ff"] ;
184 -> 185 ;
186 [label="Weight <= 74.5\ngini = 0.391\nsamples = 30\nvalue = [8, 22]", fillcolor="#399de5a2"] ;
184 -> 186 ;
187 [label="STD <= 3.396\ngini = 0.298\nsamples = 22\nvalue = [4, 18]", fillcolor="#399de5c6"] ;
186 -> 187 ;
188 [label="Age <= 28.5\ngini = 0.245\nsamples = 21\nvalue = [3, 18]", fillcolor="#399de5d4"] ;
187 -> 188 ;
189 [label="Weight <= 73.0\ngini = 0.133\nsamples = 14\nvalue = [1, 13]", fillcolor="#399de5eb"] ;
188 -> 189 ;
190 [label="gini = 0.0\nsamples = 10\nvalue = [0, 10]", fillcolor="#399de5ff"] ;
189 -> 190 ;
191 [label="STD <= 3.183\ngini = 0.375\nsamples = 4\nvalue = [1, 3]", fillcolor="#399de5aa"] ;
189 -> 191 ;
192 [label="STD <= 3.161\ngini = 0.5\nsamples = 2\nvalue = [1, 1]", fillcolor="#e5813900"] ;
191 -> 192 ;
193 [label="gini = 0.0\nsamples = 1\nvalue = [0, 1]", fillcolor="#399de5ff"] ;
192 -> 193 ;
194 [label="gini = 0.0\nsamples = 1\nvalue = [1, 0]", fillcolor="#e58139ff"] ;
192 -> 194 ;
195 [label="gini = 0.0\nsamples = 2\nvalue = [0, 2]", fillcolor="#399de5ff"] ;
191 -> 195 ;
196 [label="Weight <= 59.0\ngini = 0.408\nsamples = 7\nvalue = [2, 5]", fillcolor="#399de599"] ;
188 -> 196 ;
197 [label="gini = 0.0\nsamples = 4\nvalue = [0, 4]", fillcolor="#399de5ff"] ;
196 -> 197 ;
198 [label="STD <= 3.32\ngini = 0.444\nsamples = 3\nvalue = [2, 1]", fillcolor="#e581397f"] ;
196 -> 198 ;
199 [label="gini = 0.0\nsamples = 2\nvalue = [2, 0]", fillcolor="#e58139ff"] ;
198 -> 199 ;
200 [label="gini = 0.0\nsamples = 1\nvalue = [0, 1]", fillcolor="#399de5ff"] ;
198 -> 200 ;
201 [label="gini = 0.0\nsamples = 1\nvalue = [1, 0]", fillcolor="#e58139ff"] ;
187 -> 201 ;
202 [label="Age <= 24.5\ngini = 0.5\nsamples = 8\nvalue = [4, 4]", fillcolor="#e5813900"] ;
186 -> 202 ;
203 [label="gini = 0.0\nsamples = 3\nvalue = [0, 3]", fillcolor="#399de5ff"] ;
202 -> 203 ;
204 [label="Age <= 26.0\ngini = 0.32\nsamples = 5\nvalue = [4, 1]", fillcolor="#e58139bf"] ;
202 -> 204 ;
205 [label="Weight <= 77.5\ngini = 0.5\nsamples = 2\nvalue = [1, 1]", fillcolor="#e5813900"] ;
204 -> 205 ;
206 [label="gini = 0.0\nsamples = 1\nvalue = [1, 0]", fillcolor="#e58139ff"] ;
205 -> 206 ;
207 [label="gini = 0.0\nsamples = 1\nvalue = [0, 1]", fillcolor="#399de5ff"] ;
205 -> 207 ;
208 [label="gini = 0.0\nsamples = 3\nvalue = [3, 0]", fillcolor="#e58139ff"] ;
204 -> 208 ;
209 [label="Weight <= 67.5\ngini = 0.42\nsamples = 10\nvalue = [7, 3]", fillcolor="#e5813992"] ;
169 -> 209 ;
210 [label="Height <= 167.5\ngini = 0.5\nsamples = 4\nvalue = [2, 2]", fillcolor="#e5813900"] ;
209 -> 210 ;
211 [label="gini = 0.0\nsamples = 2\nvalue = [2, 0]", fillcolor="#e58139ff"] ;
210 -> 211 ;
212 [label="gini = 0.0\nsamples = 2\nvalue = [0, 2]", fillcolor="#399de5ff"] ;
210 -> 212 ;
213 [label="STD <= 2.89\ngini = 0.278\nsamples = 6\nvalue = [5, 1]", fillcolor="#e58139cc"] ;
209 -> 213 ;
214 [label="STD <= 2.85\ngini = 0.444\nsamples = 3\nvalue = [2, 1]", fillcolor="#e581397f"] ;
213 -> 214 ;
215 [label="gini = 0.0\nsamples = 2\nvalue = [2, 0]", fillcolor="#e58139ff"] ;
214 -> 215 ;
216 [label="gini = 0.0\nsamples = 1\nvalue = [0, 1]", fillcolor="#399de5ff"] ;
214 -> 216 ;
217 [label="gini = 0.0\nsamples = 3\nvalue = [3, 0]", fillcolor="#e58139ff"] ;
213 -> 217 ;
218 [label="STD <= 7.227\ngini = 0.335\nsamples = 169\nvalue = [36, 133]", fillcolor="#399de5ba"] ;
132 -> 218 ;
219 [label="STD <= 6.795\ngini = 0.371\nsamples = 134\nvalue = [33, 101]", fillcolor="#399de5ac"] ;
218 -> 219 ;
220 [label="Weight <= 96.5\ngini = 0.35\nsamples = 128\nvalue = [29, 99]", fillcolor="#399de5b4"] ;
219 -> 220 ;
221 [label="STD <= 4.849\ngini = 0.333\nsamples = 123\nvalue = [26, 97]", fillcolor="#399de5bb"] ;
220 -> 221 ;
222 [label="STD <= 4.768\ngini = 0.387\nsamples = 80\nvalue = [21, 59]", fillcolor="#399de5a4"] ;
221 -> 222 ;
223 [label="Weight <= 65.5\ngini = 0.347\nsamples = 76\nvalue = [17, 59]", fillcolor="#399de5b6"] ;
222 -> 223 ;
224 [label="Age <= 28.5\ngini = 0.495\nsamples = 20\nvalue = [9, 11]", fillcolor="#399de52e"] ;
223 -> 224 ;
225 [label="Age <= 27.0\ngini = 0.463\nsamples = 11\nvalue = [7, 4]", fillcolor="#e581396d"] ;
224 -> 225 ;
226 [label="Height <= 166.0\ngini = 0.444\nsamples = 6\nvalue = [2, 4]", fillcolor="#399de57f"] ;
225 -> 226 ;
227 [label="gini = 0.0\nsamples = 1\nvalue = [1, 0]", fillcolor="#e58139ff"] ;
226 -> 227 ;
228 [label="STD <= 3.673\ngini = 0.32\nsamples = 5\nvalue = [1, 4]", fillcolor="#399de5bf"] ;
226 -> 228 ;
229 [label="gini = 0.0\nsamples = 1\nvalue = [1, 0]", fillcolor="#e58139ff"] ;
228 -> 229 ;
230 [label="gini = 0.0\nsamples = 4\nvalue = [0, 4]", fillcolor="#399de5ff"] ;
228 -> 230 ;
231 [label="gini = 0.0\nsamples = 5\nvalue = [5, 0]", fillcolor="#e58139ff"] ;
225 -> 231 ;
232 [label="STD <= 3.526\ngini = 0.346\nsamples = 9\nvalue = [2, 7]", fillcolor="#399de5b6"] ;
224 -> 232 ;
233 [label="gini = 0.0\nsamples = 1\nvalue = [1, 0]", fillcolor="#e58139ff"] ;
232 -> 233 ;
234 [label="STD <= 4.269\ngini = 0.219\nsamples = 8\nvalue = [1, 7]", fillcolor="#399de5db"] ;
232 -> 234 ;
235 [label="gini = 0.0\nsamples = 5\nvalue = [0, 5]", fillcolor="#399de5ff"] ;
234 -> 235 ;
236 [label="STD <= 4.401\ngini = 0.444\nsamples = 3\nvalue = [1, 2]", fillcolor="#399de57f"] ;
234 -> 236 ;
237 [label="gini = 0.0\nsamples = 1\nvalue = [1, 0]", fillcolor="#e58139ff"] ;
236 -> 237 ;
238 [label="gini = 0.0\nsamples = 2\nvalue = [0, 2]", fillcolor="#399de5ff"] ;
236 -> 238 ;
239 [label="STD <= 4.262\ngini = 0.245\nsamples = 56\nvalue = [8, 48]", fillcolor="#399de5d4"] ;
223 -> 239 ;
240 [label="STD <= 4.254\ngini = 0.326\nsamples = 39\nvalue = [8, 31]", fillcolor="#399de5bd"] ;
239 -> 240 ;
241 [label="Weight <= 79.0\ngini = 0.272\nsamples = 37\nvalue = [6, 31]", fillcolor="#399de5ce"] ;
240 -> 241 ;
242 [label="STD <= 3.54\ngini = 0.087\nsamples = 22\nvalue = [1, 21]", fillcolor="#399de5f3"] ;
241 -> 242 ;
243 [label="Height <= 176.0\ngini = 0.375\nsamples = 4\nvalue = [1, 3]", fillcolor="#399de5aa"] ;
242 -> 243 ;
244 [label="gini = 0.0\nsamples = 1\nvalue = [1, 0]", fillcolor="#e58139ff"] ;
243 -> 244 ;
245 [label="gini = 0.0\nsamples = 3\nvalue = [0, 3]", fillcolor="#399de5ff"] ;
243 -> 245 ;
246 [label="gini = 0.0\nsamples = 18\nvalue = [0, 18]", fillcolor="#399de5ff"] ;
242 -> 246 ;
247 [label="Weight <= 81.5\ngini = 0.444\nsamples = 15\nvalue = [5, 10]", fillcolor="#399de57f"] ;
241 -> 247 ;
248 [label="gini = 0.0\nsamples = 3\nvalue = [3, 0]", fillcolor="#e58139ff"] ;
247 -> 248 ;
249 [label="STD <= 4.053\ngini = 0.278\nsamples = 12\nvalue = [2, 10]", fillcolor="#399de5cc"] ;
247 -> 249 ;
250 [label="Age <= 21.0\ngini = 0.165\nsamples = 11\nvalue = [1, 10]", fillcolor="#399de5e6"] ;
249 -> 250 ;
251 [label="STD <= 3.778\ngini = 0.5\nsamples = 2\nvalue = [1, 1]", fillcolor="#e5813900"] ;
250 -> 251 ;
252 [label="gini = 0.0\nsamples = 1\nvalue = [0, 1]", fillcolor="#399de5ff"] ;
251 -> 252 ;
253 [label="gini = 0.0\nsamples = 1\nvalue = [1, 0]", fillcolor="#e58139ff"] ;
251 -> 253 ;
254 [label="gini = 0.0\nsamples = 9\nvalue = [0, 9]", fillcolor="#399de5ff"] ;
250 -> 254 ;
255 [label="gini = 0.0\nsamples = 1\nvalue = [1, 0]", fillcolor="#e58139ff"] ;
249 -> 255 ;
256 [label="gini = 0.0\nsamples = 2\nvalue = [2, 0]", fillcolor="#e58139ff"] ;
240 -> 256 ;
257 [label="gini = 0.0\nsamples = 17\nvalue = [0, 17]", fillcolor="#399de5ff"] ;
239 -> 257 ;
258 [label="gini = 0.0\nsamples = 4\nvalue = [4, 0]", fillcolor="#e58139ff"] ;
222 -> 258 ;
259 [label="STD <= 5.467\ngini = 0.206\nsamples = 43\nvalue = [5, 38]", fillcolor="#399de5dd"] ;
221 -> 259 ;
260 [label="gini = 0.0\nsamples = 19\nvalue = [0, 19]", fillcolor="#399de5ff"] ;
259 -> 260 ;
261 [label="Age <= 33.0\ngini = 0.33\nsamples = 24\nvalue = [5, 19]", fillcolor="#399de5bc"] ;
259 -> 261 ;
262 [label="STD <= 5.584\ngini = 0.245\nsamples = 21\nvalue = [3, 18]", fillcolor="#399de5d4"] ;
261 -> 262 ;
263 [label="Weight <= 79.0\ngini = 0.444\nsamples = 3\nvalue = [2, 1]", fillcolor="#e581397f"] ;
262 -> 263 ;
264 [label="gini = 0.0\nsamples = 2\nvalue = [2, 0]", fillcolor="#e58139ff"] ;
263 -> 264 ;
265 [label="gini = 0.0\nsamples = 1\nvalue = [0, 1]", fillcolor="#399de5ff"] ;
263 -> 265 ;
266 [label="Height <= 186.5\ngini = 0.105\nsamples = 18\nvalue = [1, 17]", fillcolor="#399de5f0"] ;
262 -> 266 ;
267 [label="gini = 0.0\nsamples = 17\nvalue = [0, 17]", fillcolor="#399de5ff"] ;
266 -> 267 ;
268 [label="gini = 0.0\nsamples = 1\nvalue = [1, 0]", fillcolor="#e58139ff"] ;
266 -> 268 ;
269 [label="STD <= 5.925\ngini = 0.444\nsamples = 3\nvalue = [2, 1]", fillcolor="#e581397f"] ;
261 -> 269 ;
270 [label="gini = 0.0\nsamples = 1\nvalue = [0, 1]", fillcolor="#399de5ff"] ;
269 -> 270 ;
271 [label="gini = 0.0\nsamples = 2\nvalue = [2, 0]", fillcolor="#e58139ff"] ;
269 -> 271 ;
272 [label="STD <= 3.688\ngini = 0.48\nsamples = 5\nvalue = [3, 2]", fillcolor="#e5813955"] ;
220 -> 272 ;
273 [label="gini = 0.0\nsamples = 1\nvalue = [0, 1]", fillcolor="#399de5ff"] ;
272 -> 273 ;
274 [label="STD <= 5.021\ngini = 0.375\nsamples = 4\nvalue = [3, 1]", fillcolor="#e58139aa"] ;
272 -> 274 ;
275 [label="gini = 0.0\nsamples = 2\nvalue = [2, 0]", fillcolor="#e58139ff"] ;
274 -> 275 ;
276 [label="STD <= 5.819\ngini = 0.5\nsamples = 2\nvalue = [1, 1]", fillcolor="#e5813900"] ;
274 -> 276 ;
277 [label="gini = 0.0\nsamples = 1\nvalue = [0, 1]", fillcolor="#399de5ff"] ;
276 -> 277 ;
278 [label="gini = 0.0\nsamples = 1\nvalue = [1, 0]", fillcolor="#e58139ff"] ;
276 -> 278 ;
279 [label="Height <= 177.0\ngini = 0.444\nsamples = 6\nvalue = [4, 2]", fillcolor="#e581397f"] ;
219 -> 279 ;
280 [label="Age <= 23.5\ngini = 0.444\nsamples = 3\nvalue = [1, 2]", fillcolor="#399de57f"] ;
279 -> 280 ;
281 [label="gini = 0.0\nsamples = 1\nvalue = [1, 0]", fillcolor="#e58139ff"] ;
280 -> 281 ;
282 [label="gini = 0.0\nsamples = 2\nvalue = [0, 2]", fillcolor="#399de5ff"] ;
280 -> 282 ;
283 [label="gini = 0.0\nsamples = 3\nvalue = [3, 0]", fillcolor="#e58139ff"] ;
279 -> 283 ;
284 [label="STD <= 26.076\ngini = 0.157\nsamples = 35\nvalue = [3, 32]", fillcolor="#399de5e7"] ;
218 -> 284 ;
285 [label="Height <= 160.5\ngini = 0.111\nsamples = 34\nvalue = [2, 32]", fillcolor="#399de5ef"] ;
284 -> 285 ;
286 [label="STD <= 8.165\ngini = 0.444\nsamples = 3\nvalue = [1, 2]", fillcolor="#399de57f"] ;
285 -> 286 ;
287 [label="gini = 0.0\nsamples = 1\nvalue = [1, 0]", fillcolor="#e58139ff"] ;
286 -> 287 ;
288 [label="gini = 0.0\nsamples = 2\nvalue = [0, 2]", fillcolor="#399de5ff"] ;
286 -> 288 ;
289 [label="Height <= 193.0\ngini = 0.062\nsamples = 31\nvalue = [1, 30]", fillcolor="#399de5f6"] ;
285 -> 289 ;
290 [label="gini = 0.0\nsamples = 27\nvalue = [0, 27]", fillcolor="#399de5ff"] ;
289 -> 290 ;
291 [label="STD <= 9.324\ngini = 0.375\nsamples = 4\nvalue = [1, 3]", fillcolor="#399de5aa"] ;
289 -> 291 ;
292 [label="gini = 0.0\nsamples = 3\nvalue = [0, 3]", fillcolor="#399de5ff"] ;
291 -> 292 ;
293 [label="gini = 0.0\nsamples = 1\nvalue = [1, 0]", fillcolor="#e58139ff"] ;
291 -> 293 ;
294 [label="gini = 0.0\nsamples = 1\nvalue = [1, 0]", fillcolor="#e58139ff"] ;
284 -> 294 ;
}