digraph Tree {
node [shape=box, style="filled", color="black"] ;
0 [label="AverageStepLength <= 0.57\ngini = 0.5\nsamples = 496\nvalue = [248, 248]\nclass = norm", fillcolor="#e5813900"] ;
1 [label="AverageStepLength <= 0.518\ngini = 0.227\nsamples = 237\nvalue = [31, 206]\nclass = bril", fillcolor="#399de5d9"] ;
0 -> 1 [labeldistance=2.5, labelangle=45, headlabel="True"] ;
2 [label="Som_afstand <= 1.658\ngini = 0.062\nsamples = 157\nvalue = [5, 152]\nclass = bril", fillcolor="#399de5f7"] ;
1 -> 2 ;
3 [label="gini = 0.48\nsamples = 5\nvalue = [2, 3]\nclass = bril", fillcolor="#399de555"] ;
2 -> 3 ;
4 [label="AverageStepLength <= 0.495\ngini = 0.039\nsamples = 152\nvalue = [3, 149]\nclass = bril", fillcolor="#399de5fa"] ;
2 -> 4 ;
5 [label="AverageStepLength <= 0.395\ngini = 0.016\nsamples = 128\nvalue = [1, 127]\nclass = bril", fillcolor="#399de5fd"] ;
4 -> 5 ;
6 [label="gini = 0.091\nsamples = 21\nvalue = [1, 20]\nclass = bril", fillcolor="#399de5f2"] ;
5 -> 6 ;
7 [label="gini = 0.0\nsamples = 107\nvalue = [0, 107]\nclass = bril", fillcolor="#399de5ff"] ;
5 -> 7 ;
8 [label="AverageStepLength <= 0.497\ngini = 0.153\nsamples = 24\nvalue = [2, 22]\nclass = bril", fillcolor="#399de5e8"] ;
4 -> 8 ;
9 [label="gini = 0.48\nsamples = 5\nvalue = [2, 3]\nclass = bril", fillcolor="#399de555"] ;
8 -> 9 ;
10 [label="gini = 0.0\nsamples = 19\nvalue = [0, 19]\nclass = bril", fillcolor="#399de5ff"] ;
8 -> 10 ;
11 [label="Som_afstand <= 3.135\ngini = 0.439\nsamples = 80\nvalue = [26, 54]\nclass = bril", fillcolor="#399de584"] ;
1 -> 11 ;
12 [label="AverageStepLength <= 0.533\ngini = 0.498\nsamples = 45\nvalue = [21, 24]\nclass = bril", fillcolor="#399de520"] ;
11 -> 12 ;
13 [label="AverageStepLength <= 0.529\ngini = 0.391\nsamples = 15\nvalue = [4, 11]\nclass = bril", fillcolor="#399de5a2"] ;
12 -> 13 ;
14 [label="gini = 0.494\nsamples = 9\nvalue = [4, 5]\nclass = bril", fillcolor="#399de533"] ;
13 -> 14 ;
15 [label="gini = 0.0\nsamples = 6\nvalue = [0, 6]\nclass = bril", fillcolor="#399de5ff"] ;
13 -> 15 ;
16 [label="AverageStepLength <= 0.564\ngini = 0.491\nsamples = 30\nvalue = [17, 13]\nclass = norm", fillcolor="#e581393c"] ;
12 -> 16 ;
17 [label="gini = 0.454\nsamples = 23\nvalue = [15, 8]\nclass = norm", fillcolor="#e5813977"] ;
16 -> 17 ;
18 [label="gini = 0.408\nsamples = 7\nvalue = [2, 5]\nclass = bril", fillcolor="#399de599"] ;
16 -> 18 ;
19 [label="Som_afstand <= 4.637\ngini = 0.245\nsamples = 35\nvalue = [5, 30]\nclass = bril", fillcolor="#399de5d4"] ;
11 -> 19 ;
20 [label="AverageStepLength <= 0.55\ngini = 0.083\nsamples = 23\nvalue = [1, 22]\nclass = bril", fillcolor="#399de5f3"] ;
19 -> 20 ;
21 [label="gini = 0.0\nsamples = 14\nvalue = [0, 14]\nclass = bril", fillcolor="#399de5ff"] ;
20 -> 21 ;
22 [label="gini = 0.198\nsamples = 9\nvalue = [1, 8]\nclass = bril", fillcolor="#399de5df"] ;
20 -> 22 ;
23 [label="AverageStepLength <= 0.538\ngini = 0.444\nsamples = 12\nvalue = [4, 8]\nclass = bril", fillcolor="#399de57f"] ;
19 -> 23 ;
24 [label="gini = 0.32\nsamples = 5\nvalue = [1, 4]\nclass = bril", fillcolor="#399de5bf"] ;
23 -> 24 ;
25 [label="gini = 0.49\nsamples = 7\nvalue = [3, 4]\nclass = bril", fillcolor="#399de540"] ;
23 -> 25 ;
26 [label="AverageStepLength <= 0.598\ngini = 0.272\nsamples = 259\nvalue = [217, 42]\nclass = norm", fillcolor="#e58139ce"] ;
0 -> 26 [labeldistance=2.5, labelangle=-45, headlabel="False"] ;
27 [label="Som_afstand <= 1.432\ngini = 0.475\nsamples = 49\nvalue = [30, 19]\nclass = norm", fillcolor="#e581395e"] ;
26 -> 27 ;
28 [label="gini = 0.0\nsamples = 8\nvalue = [8, 0]\nclass = norm", fillcolor="#e58139ff"] ;
27 -> 28 ;
29 [label="Som_afstand <= 3.888\ngini = 0.497\nsamples = 41\nvalue = [22, 19]\nclass = norm", fillcolor="#e5813923"] ;
27 -> 29 ;
30 [label="Som_afstand <= 3.35\ngini = 0.498\nsamples = 34\nvalue = [16, 18]\nclass = bril", fillcolor="#399de51c"] ;
29 -> 30 ;
31 [label="gini = 0.495\nsamples = 29\nvalue = [16, 13]\nclass = norm", fillcolor="#e5813930"] ;
30 -> 31 ;
32 [label="gini = 0.0\nsamples = 5\nvalue = [0, 5]\nclass = bril", fillcolor="#399de5ff"] ;
30 -> 32 ;
33 [label="gini = 0.245\nsamples = 7\nvalue = [6, 1]\nclass = norm", fillcolor="#e58139d4"] ;
29 -> 33 ;
34 [label="Som_afstand <= 2.447\ngini = 0.195\nsamples = 210\nvalue = [187, 23]\nclass = norm", fillcolor="#e58139e0"] ;
26 -> 34 ;
35 [label="AverageStepLength <= 0.698\ngini = 0.122\nsamples = 153\nvalue = [143, 10]\nclass = norm", fillcolor="#e58139ed"] ;
34 -> 35 ;
36 [label="AverageStepLength <= 0.682\ngini = 0.152\nsamples = 121\nvalue = [111, 10]\nclass = norm", fillcolor="#e58139e8"] ;
35 -> 36 ;
37 [label="gini = 0.12\nsamples = 109\nvalue = [102, 7]\nclass = norm", fillcolor="#e58139ee"] ;
36 -> 37 ;
38 [label="gini = 0.375\nsamples = 12\nvalue = [9, 3]\nclass = norm", fillcolor="#e58139aa"] ;
36 -> 38 ;
39 [label="gini = 0.0\nsamples = 32\nvalue = [32, 0]\nclass = norm", fillcolor="#e58139ff"] ;
35 -> 39 ;
40 [label="Som_afstand <= 2.699\ngini = 0.352\nsamples = 57\nvalue = [44, 13]\nclass = norm", fillcolor="#e58139b4"] ;
34 -> 40 ;
41 [label="gini = 0.444\nsamples = 6\nvalue = [2, 4]\nclass = bril", fillcolor="#399de57f"] ;
40 -> 41 ;
42 [label="AverageStepLength <= 0.61\ngini = 0.291\nsamples = 51\nvalue = [42, 9]\nclass = norm", fillcolor="#e58139c8"] ;
40 -> 42 ;
43 [label="gini = 0.0\nsamples = 11\nvalue = [11, 0]\nclass = norm", fillcolor="#e58139ff"] ;
42 -> 43 ;
44 [label="gini = 0.349\nsamples = 40\nvalue = [31, 9]\nclass = norm", fillcolor="#e58139b5"] ;
42 -> 44 ;
}