digraph Tree {
node [shape=box, style="filled", color="black"] ;
0 [label="STD <= 2.231\ngini = 0.5\nsamples = 496\nvalue = [248, 248]", fillcolor="#e5813900"] ;
1 [label="STD <= 1.573\ngini = 0.365\nsamples = 212\nvalue = [161, 51]", fillcolor="#e58139ae"] ;
0 -> 1 [labeldistance=2.5, labelangle=45, headlabel="True"] ;
2 [label="Height <= 166.0\ngini = 0.21\nsamples = 109\nvalue = [96, 13]", fillcolor="#e58139dc"] ;
1 -> 2 ;
3 [label="STD <= 1.331\ngini = 0.42\nsamples = 10\nvalue = [7, 3]", fillcolor="#e5813992"] ;
2 -> 3 ;
4 [label="gini = 0.0\nsamples = 5\nvalue = [5, 0]", fillcolor="#e58139ff"] ;
3 -> 4 ;
5 [label="STD <= 1.501\ngini = 0.48\nsamples = 5\nvalue = [2, 3]", fillcolor="#399de555"] ;
3 -> 5 ;
6 [label="gini = 0.0\nsamples = 3\nvalue = [0, 3]", fillcolor="#399de5ff"] ;
5 -> 6 ;
7 [label="gini = 0.0\nsamples = 2\nvalue = [2, 0]", fillcolor="#e58139ff"] ;
5 -> 7 ;
8 [label="Age <= 30.0\ngini = 0.182\nsamples = 99\nvalue = [89, 10]", fillcolor="#e58139e2"] ;
2 -> 8 ;
9 [label="STD <= 0.963\ngini = 0.139\nsamples = 80\nvalue = [74, 6]", fillcolor="#e58139ea"] ;
8 -> 9 ;
10 [label="STD <= 0.948\ngini = 0.305\nsamples = 16\nvalue = [13, 3]", fillcolor="#e58139c4"] ;
9 -> 10 ;
11 [label="(...)", fillcolor="#C0C0C0"] ;
10 -> 11 ;
18 [label="(...)", fillcolor="#C0C0C0"] ;
10 -> 18 ;
19 [label="Age <= 24.5\ngini = 0.089\nsamples = 64\nvalue = [61, 3]", fillcolor="#e58139f2"] ;
9 -> 19 ;
20 [label="(...)", fillcolor="#C0C0C0"] ;
19 -> 20 ;
35 [label="(...)", fillcolor="#C0C0C0"] ;
19 -> 35 ;
36 [label="STD <= 1.512\ngini = 0.332\nsamples = 19\nvalue = [15, 4]", fillcolor="#e58139bb"] ;
8 -> 36 ;
37 [label="Height <= 173.0\ngini = 0.278\nsamples = 18\nvalue = [15, 3]", fillcolor="#e58139cc"] ;
36 -> 37 ;
38 [label="(...)", fillcolor="#C0C0C0"] ;
37 -> 38 ;
47 [label="(...)", fillcolor="#C0C0C0"] ;
37 -> 47 ;
48 [label="gini = 0.0\nsamples = 1\nvalue = [0, 1]", fillcolor="#399de5ff"] ;
36 -> 48 ;
49 [label="STD <= 1.589\ngini = 0.466\nsamples = 103\nvalue = [65, 38]", fillcolor="#e581396a"] ;
1 -> 49 ;
50 [label="gini = 0.0\nsamples = 2\nvalue = [0, 2]", fillcolor="#399de5ff"] ;
49 -> 50 ;
51 [label="Age <= 30.0\ngini = 0.459\nsamples = 101\nvalue = [65, 36]", fillcolor="#e5813972"] ;
49 -> 51 ;
52 [label="Height <= 166.0\ngini = 0.48\nsamples = 80\nvalue = [48, 32]", fillcolor="#e5813955"] ;
51 -> 52 ;
53 [label="STD <= 2.084\ngini = 0.18\nsamples = 10\nvalue = [9, 1]", fillcolor="#e58139e3"] ;
52 -> 53 ;
54 [label="(...)", fillcolor="#C0C0C0"] ;
53 -> 54 ;
55 [label="(...)", fillcolor="#C0C0C0"] ;
53 -> 55 ;
58 [label="Weight <= 70.5\ngini = 0.493\nsamples = 70\nvalue = [39, 31]", fillcolor="#e5813934"] ;
52 -> 58 ;
59 [label="(...)", fillcolor="#C0C0C0"] ;
58 -> 59 ;
88 [label="(...)", fillcolor="#C0C0C0"] ;
58 -> 88 ;
121 [label="STD <= 1.974\ngini = 0.308\nsamples = 21\nvalue = [17, 4]", fillcolor="#e58139c3"] ;
51 -> 121 ;
122 [label="STD <= 1.897\ngini = 0.463\nsamples = 11\nvalue = [7, 4]", fillcolor="#e581396d"] ;
121 -> 122 ;
123 [label="(...)", fillcolor="#C0C0C0"] ;
122 -> 123 ;
126 [label="(...)", fillcolor="#C0C0C0"] ;
122 -> 126 ;
131 [label="gini = 0.0\nsamples = 10\nvalue = [10, 0]", fillcolor="#e58139ff"] ;
121 -> 131 ;
132 [label="STD <= 3.423\ngini = 0.425\nsamples = 284\nvalue = [87, 197]", fillcolor="#399de58e"] ;
0 -> 132 [labeldistance=2.5, labelangle=-45, headlabel="False"] ;
133 [label="STD <= 2.654\ngini = 0.494\nsamples = 115\nvalue = [51, 64]", fillcolor="#399de534"] ;
132 -> 133 ;
134 [label="Height <= 163.5\ngini = 0.422\nsamples = 43\nvalue = [13, 30]", fillcolor="#399de591"] ;
133 -> 134 ;
135 [label="gini = 0.0\nsamples = 2\nvalue = [2, 0]", fillcolor="#e58139ff"] ;
134 -> 135 ;
136 [label="STD <= 2.469\ngini = 0.393\nsamples = 41\nvalue = [11, 30]", fillcolor="#399de5a1"] ;
134 -> 136 ;
137 [label="STD <= 2.328\ngini = 0.471\nsamples = 29\nvalue = [11, 18]", fillcolor="#399de563"] ;
136 -> 137 ;
138 [label="(...)", fillcolor="#C0C0C0"] ;
137 -> 138 ;
145 [label="(...)", fillcolor="#C0C0C0"] ;
137 -> 145 ;
158 [label="gini = 0.0\nsamples = 12\nvalue = [0, 12]", fillcolor="#399de5ff"] ;
136 -> 158 ;
159 [label="STD <= 2.717\ngini = 0.498\nsamples = 72\nvalue = [38, 34]", fillcolor="#e581391b"] ;
133 -> 159 ;
160 [label="gini = 0.0\nsamples = 7\nvalue = [7, 0]", fillcolor="#e58139ff"] ;
159 -> 160 ;
161 [label="Age <= 20.5\ngini = 0.499\nsamples = 65\nvalue = [31, 34]", fillcolor="#399de517"] ;
159 -> 161 ;
162 [label="STD <= 2.792\ngini = 0.346\nsamples = 9\nvalue = [7, 2]", fillcolor="#e58139b6"] ;
161 -> 162 ;
163 [label="(...)", fillcolor="#C0C0C0"] ;
162 -> 163 ;
164 [label="(...)", fillcolor="#C0C0C0"] ;
162 -> 164 ;
169 [label="Age <= 33.0\ngini = 0.49\nsamples = 56\nvalue = [24, 32]", fillcolor="#399de540"] ;
161 -> 169 ;
170 [label="(...)", fillcolor="#C0C0C0"] ;
169 -> 170 ;
207 [label="(...)", fillcolor="#C0C0C0"] ;
169 -> 207 ;
216 [label="STD <= 7.227\ngini = 0.335\nsamples = 169\nvalue = [36, 133]", fillcolor="#399de5ba"] ;
132 -> 216 ;
217 [label="STD <= 6.795\ngini = 0.371\nsamples = 134\nvalue = [33, 101]", fillcolor="#399de5ac"] ;
216 -> 217 ;
218 [label="Weight <= 96.5\ngini = 0.35\nsamples = 128\nvalue = [29, 99]", fillcolor="#399de5b4"] ;
217 -> 218 ;
219 [label="STD <= 4.849\ngini = 0.333\nsamples = 123\nvalue = [26, 97]", fillcolor="#399de5bb"] ;
218 -> 219 ;
220 [label="(...)", fillcolor="#C0C0C0"] ;
219 -> 220 ;
257 [label="(...)", fillcolor="#C0C0C0"] ;
219 -> 257 ;
270 [label="STD <= 3.688\ngini = 0.48\nsamples = 5\nvalue = [3, 2]", fillcolor="#e5813955"] ;
218 -> 270 ;
271 [label="(...)", fillcolor="#C0C0C0"] ;
270 -> 271 ;
272 [label="(...)", fillcolor="#C0C0C0"] ;
270 -> 272 ;
277 [label="STD <= 6.904\ngini = 0.444\nsamples = 6\nvalue = [4, 2]", fillcolor="#e581397f"] ;
217 -> 277 ;
278 [label="gini = 0.0\nsamples = 3\nvalue = [3, 0]", fillcolor="#e58139ff"] ;
277 -> 278 ;
279 [label="Age <= 35.5\ngini = 0.444\nsamples = 3\nvalue = [1, 2]", fillcolor="#399de57f"] ;
277 -> 279 ;
280 [label="(...)", fillcolor="#C0C0C0"] ;
279 -> 280 ;
281 [label="(...)", fillcolor="#C0C0C0"] ;
279 -> 281 ;
282 [label="STD <= 26.076\ngini = 0.157\nsamples = 35\nvalue = [3, 32]", fillcolor="#399de5e7"] ;
216 -> 282 ;
283 [label="Height <= 160.5\ngini = 0.111\nsamples = 34\nvalue = [2, 32]", fillcolor="#399de5ef"] ;
282 -> 283 ;
284 [label="STD <= 8.165\ngini = 0.444\nsamples = 3\nvalue = [1, 2]", fillcolor="#399de57f"] ;
283 -> 284 ;
285 [label="(...)", fillcolor="#C0C0C0"] ;
284 -> 285 ;
286 [label="(...)", fillcolor="#C0C0C0"] ;
284 -> 286 ;
287 [label="Height <= 193.0\ngini = 0.062\nsamples = 31\nvalue = [1, 30]", fillcolor="#399de5f6"] ;
283 -> 287 ;
288 [label="(...)", fillcolor="#C0C0C0"] ;
287 -> 288 ;
289 [label="(...)", fillcolor="#C0C0C0"] ;
287 -> 289 ;
292 [label="gini = 0.0\nsamples = 1\nvalue = [1, 0]", fillcolor="#e58139ff"] ;
282 -> 292 ;
}