digraph Tree {
node [shape=box, style="filled", color="black"] ;
0 [label="AverageStepLength <= 0.57\ngini = 0.5\nsamples = 496\nvalue = [248, 248]\nclass = norm", fillcolor="#e5813900"] ;
1 [label="AverageStepLength <= 0.533\ngini = 0.215\nsamples = 228\nvalue = [28, 200]\nclass = bril", fillcolor="#399de5db"] ;
0 -> 1 [labeldistance=2.5, labelangle=45, headlabel="True"] ;
2 [label="Som_afstand <= 1.546\ngini = 0.099\nsamples = 172\nvalue = [9, 163]\nclass = bril", fillcolor="#399de5f1"] ;
1 -> 2 ;
3 [label="gini = 0.5\nsamples = 6\nvalue = [3, 3]\nclass = norm", fillcolor="#e5813900"] ;
2 -> 3 ;
4 [label="AverageStepLength <= 0.518\ngini = 0.07\nsamples = 166\nvalue = [6, 160]\nclass = bril", fillcolor="#399de5f5"] ;
2 -> 4 ;
5 [label="Som_afstand <= 13.01\ngini = 0.041\nsamples = 144\nvalue = [3, 141]\nclass = bril", fillcolor="#399de5fa"] ;
4 -> 5 ;
6 [label="gini = 0.028\nsamples = 139\nvalue = [2, 137]\nclass = bril", fillcolor="#399de5fb"] ;
5 -> 6 ;
7 [label="gini = 0.32\nsamples = 5\nvalue = [1, 4]\nclass = bril", fillcolor="#399de5bf"] ;
5 -> 7 ;
8 [label="AverageStepLength <= 0.529\ngini = 0.236\nsamples = 22\nvalue = [3, 19]\nclass = bril", fillcolor="#399de5d7"] ;
4 -> 8 ;
9 [label="gini = 0.397\nsamples = 11\nvalue = [3, 8]\nclass = bril", fillcolor="#399de59f"] ;
8 -> 9 ;
10 [label="gini = 0.0\nsamples = 11\nvalue = [0, 11]\nclass = bril", fillcolor="#399de5ff"] ;
8 -> 10 ;
11 [label="Som_afstand <= 1.756\ngini = 0.448\nsamples = 56\nvalue = [19, 37]\nclass = bril", fillcolor="#399de57c"] ;
1 -> 11 ;
12 [label="gini = 0.278\nsamples = 6\nvalue = [5, 1]\nclass = norm", fillcolor="#e58139cc"] ;
11 -> 12 ;
13 [label="AverageStepLength <= 0.553\ngini = 0.403\nsamples = 50\nvalue = [14, 36]\nclass = bril", fillcolor="#399de59c"] ;
11 -> 13 ;
14 [label="AverageStepLength <= 0.541\ngini = 0.236\nsamples = 22\nvalue = [3, 19]\nclass = bril", fillcolor="#399de5d7"] ;
13 -> 14 ;
15 [label="gini = 0.48\nsamples = 5\nvalue = [2, 3]\nclass = bril", fillcolor="#399de555"] ;
14 -> 15 ;
16 [label="gini = 0.111\nsamples = 17\nvalue = [1, 16]\nclass = bril", fillcolor="#399de5ef"] ;
14 -> 16 ;
17 [label="AverageStepLength <= 0.559\ngini = 0.477\nsamples = 28\nvalue = [11, 17]\nclass = bril", fillcolor="#399de55a"] ;
13 -> 17 ;
18 [label="gini = 0.375\nsamples = 8\nvalue = [6, 2]\nclass = norm", fillcolor="#e58139aa"] ;
17 -> 18 ;
19 [label="gini = 0.375\nsamples = 20\nvalue = [5, 15]\nclass = bril", fillcolor="#399de5aa"] ;
17 -> 19 ;
20 [label="AverageStepLength <= 0.596\ngini = 0.294\nsamples = 268\nvalue = [220, 48]\nclass = norm", fillcolor="#e58139c7"] ;
0 -> 20 [labeldistance=2.5, labelangle=-45, headlabel="False"] ;
21 [label="Som_afstand <= 3.055\ngini = 0.486\nsamples = 48\nvalue = [28, 20]\nclass = norm", fillcolor="#e5813949"] ;
20 -> 21 ;
22 [label="Som_afstand <= 1.391\ngini = 0.431\nsamples = 35\nvalue = [24, 11]\nclass = norm", fillcolor="#e581398a"] ;
21 -> 22 ;
23 [label="gini = 0.0\nsamples = 5\nvalue = [5, 0]\nclass = norm", fillcolor="#e58139ff"] ;
22 -> 23 ;
24 [label="Som_afstand <= 1.73\ngini = 0.464\nsamples = 30\nvalue = [19, 11]\nclass = norm", fillcolor="#e581396b"] ;
22 -> 24 ;
25 [label="gini = 0.444\nsamples = 9\nvalue = [3, 6]\nclass = bril", fillcolor="#399de57f"] ;
24 -> 25 ;
26 [label="gini = 0.363\nsamples = 21\nvalue = [16, 5]\nclass = norm", fillcolor="#e58139af"] ;
24 -> 26 ;
27 [label="AverageStepLength <= 0.581\ngini = 0.426\nsamples = 13\nvalue = [4, 9]\nclass = bril", fillcolor="#399de58e"] ;
21 -> 27 ;
28 [label="gini = 0.5\nsamples = 8\nvalue = [4, 4]\nclass = norm", fillcolor="#e5813900"] ;
27 -> 28 ;
29 [label="gini = 0.0\nsamples = 5\nvalue = [0, 5]\nclass = bril", fillcolor="#399de5ff"] ;
27 -> 29 ;
30 [label="Som_afstand <= 1.35\ngini = 0.222\nsamples = 220\nvalue = [192, 28]\nclass = norm", fillcolor="#e58139da"] ;
20 -> 30 ;
31 [label="AverageStepLength <= 0.679\ngini = 0.061\nsamples = 64\nvalue = [62, 2]\nclass = norm", fillcolor="#e58139f7"] ;
30 -> 31 ;
32 [label="gini = 0.0\nsamples = 43\nvalue = [43, 0]\nclass = norm", fillcolor="#e58139ff"] ;
31 -> 32 ;
33 [label="AverageStepLength <= 0.703\ngini = 0.172\nsamples = 21\nvalue = [19, 2]\nclass = norm", fillcolor="#e58139e4"] ;
31 -> 33 ;
34 [label="gini = 0.48\nsamples = 5\nvalue = [3, 2]\nclass = norm", fillcolor="#e5813955"] ;
33 -> 34 ;
35 [label="gini = 0.0\nsamples = 16\nvalue = [16, 0]\nclass = norm", fillcolor="#e58139ff"] ;
33 -> 35 ;
36 [label="Som_afstand <= 1.455\ngini = 0.278\nsamples = 156\nvalue = [130, 26]\nclass = norm", fillcolor="#e58139cc"] ;
30 -> 36 ;
37 [label="AverageStepLength <= 0.638\ngini = 0.463\nsamples = 11\nvalue = [7, 4]\nclass = norm", fillcolor="#e581396d"] ;
36 -> 37 ;
38 [label="gini = 0.48\nsamples = 5\nvalue = [3, 2]\nclass = norm", fillcolor="#e5813955"] ;
37 -> 38 ;
39 [label="gini = 0.444\nsamples = 6\nvalue = [4, 2]\nclass = norm", fillcolor="#e581397f"] ;
37 -> 39 ;
40 [label="Som_afstand <= 1.578\ngini = 0.257\nsamples = 145\nvalue = [123, 22]\nclass = norm", fillcolor="#e58139d1"] ;
36 -> 40 ;
41 [label="gini = 0.0\nsamples = 14\nvalue = [14, 0]\nclass = norm", fillcolor="#e58139ff"] ;
40 -> 41 ;
42 [label="gini = 0.279\nsamples = 131\nvalue = [109, 22]\nclass = norm", fillcolor="#e58139cc"] ;
40 -> 42 ;
}