digraph Tree {
node [shape=box, style="filled", color="black"] ;
0 [label="AverageStepLength <= 0.588\ngini = 0.5\nsamples = 496\nvalue = [248, 248]\nclass = norm", fillcolor="#e5813900"] ;
1 [label="AverageStepLength <= 0.526\ngini = 0.289\nsamples = 257\nvalue = [45, 212]\nclass = bril", fillcolor="#399de5c9"] ;
0 -> 1 [labeldistance=2.5, labelangle=45, headlabel="True"] ;
2 [label="Som_afstand <= 1.58\ngini = 0.091\nsamples = 146\nvalue = [7, 139]\nclass = bril", fillcolor="#399de5f2"] ;
1 -> 2 ;
3 [label="gini = 0.48\nsamples = 5\nvalue = [2, 3]\nclass = bril", fillcolor="#399de555"] ;
2 -> 3 ;
4 [label="AverageStepLength <= 0.494\ngini = 0.068\nsamples = 141\nvalue = [5, 136]\nclass = bril", fillcolor="#399de5f6"] ;
2 -> 4 ;
5 [label="Som_afstand <= 10.082\ngini = 0.036\nsamples = 109\nvalue = [2, 107]\nclass = bril", fillcolor="#399de5fa"] ;
4 -> 5 ;
6 [label="gini = 0.019\nsamples = 104\nvalue = [1, 103]\nclass = bril", fillcolor="#399de5fd"] ;
5 -> 6 ;
7 [label="gini = 0.32\nsamples = 5\nvalue = [1, 4]\nclass = bril", fillcolor="#399de5bf"] ;
5 -> 7 ;
8 [label="AverageStepLength <= 0.497\ngini = 0.17\nsamples = 32\nvalue = [3, 29]\nclass = bril", fillcolor="#399de5e5"] ;
4 -> 8 ;
9 [label="gini = 0.48\nsamples = 5\nvalue = [2, 3]\nclass = bril", fillcolor="#399de555"] ;
8 -> 9 ;
10 [label="gini = 0.071\nsamples = 27\nvalue = [1, 26]\nclass = bril", fillcolor="#399de5f5"] ;
8 -> 10 ;
11 [label="Som_afstand <= 1.706\ngini = 0.45\nsamples = 111\nvalue = [38, 73]\nclass = bril", fillcolor="#399de57a"] ;
1 -> 11 ;
12 [label="Som_afstand <= 1.25\ngini = 0.444\nsamples = 12\nvalue = [8, 4]\nclass = norm", fillcolor="#e581397f"] ;
11 -> 12 ;
13 [label="gini = 0.32\nsamples = 5\nvalue = [4, 1]\nclass = norm", fillcolor="#e58139bf"] ;
12 -> 13 ;
14 [label="gini = 0.49\nsamples = 7\nvalue = [4, 3]\nclass = norm", fillcolor="#e5813940"] ;
12 -> 14 ;
15 [label="AverageStepLength <= 0.557\ngini = 0.422\nsamples = 99\nvalue = [30, 69]\nclass = bril", fillcolor="#399de590"] ;
11 -> 15 ;
16 [label="Som_afstand <= 6.334\ngini = 0.282\nsamples = 47\nvalue = [8, 39]\nclass = bril", fillcolor="#399de5cb"] ;
15 -> 16 ;
17 [label="gini = 0.21\nsamples = 42\nvalue = [5, 37]\nclass = bril", fillcolor="#399de5dd"] ;
16 -> 17 ;
18 [label="gini = 0.48\nsamples = 5\nvalue = [3, 2]\nclass = norm", fillcolor="#e5813955"] ;
16 -> 18 ;
19 [label="AverageStepLength <= 0.559\ngini = 0.488\nsamples = 52\nvalue = [22, 30]\nclass = bril", fillcolor="#399de544"] ;
15 -> 19 ;
20 [label="gini = 0.0\nsamples = 5\nvalue = [5, 0]\nclass = norm", fillcolor="#e58139ff"] ;
19 -> 20 ;
21 [label="gini = 0.462\nsamples = 47\nvalue = [17, 30]\nclass = bril", fillcolor="#399de56e"] ;
19 -> 21 ;
22 [label="Som_afstand <= 2.233\ngini = 0.256\nsamples = 239\nvalue = [203, 36]\nclass = norm", fillcolor="#e58139d2"] ;
0 -> 22 [labeldistance=2.5, labelangle=-45, headlabel="False"] ;
23 [label="AverageStepLength <= 0.61\ngini = 0.163\nsamples = 156\nvalue = [142, 14]\nclass = norm", fillcolor="#e58139e6"] ;
22 -> 23 ;
24 [label="Som_afstand <= 1.744\ngini = 0.384\nsamples = 27\nvalue = [20, 7]\nclass = norm", fillcolor="#e58139a6"] ;
23 -> 24 ;
25 [label="Som_afstand <= 1.383\ngini = 0.469\nsamples = 16\nvalue = [10, 6]\nclass = norm", fillcolor="#e5813966"] ;
24 -> 25 ;
26 [label="gini = 0.18\nsamples = 10\nvalue = [9, 1]\nclass = norm", fillcolor="#e58139e3"] ;
25 -> 26 ;
27 [label="gini = 0.278\nsamples = 6\nvalue = [1, 5]\nclass = bril", fillcolor="#399de5cc"] ;
25 -> 27 ;
28 [label="AverageStepLength <= 0.601\ngini = 0.165\nsamples = 11\nvalue = [10, 1]\nclass = norm", fillcolor="#e58139e6"] ;
24 -> 28 ;
29 [label="gini = 0.32\nsamples = 5\nvalue = [4, 1]\nclass = norm", fillcolor="#e58139bf"] ;
28 -> 29 ;
30 [label="gini = 0.0\nsamples = 6\nvalue = [6, 0]\nclass = norm", fillcolor="#e58139ff"] ;
28 -> 30 ;
31 [label="Som_afstand <= 1.36\ngini = 0.103\nsamples = 129\nvalue = [122, 7]\nclass = norm", fillcolor="#e58139f0"] ;
23 -> 31 ;
32 [label="gini = 0.0\nsamples = 48\nvalue = [48, 0]\nclass = norm", fillcolor="#e58139ff"] ;
31 -> 32 ;
33 [label="Som_afstand <= 1.66\ngini = 0.158\nsamples = 81\nvalue = [74, 7]\nclass = norm", fillcolor="#e58139e7"] ;
31 -> 33 ;
34 [label="gini = 0.266\nsamples = 38\nvalue = [32, 6]\nclass = norm", fillcolor="#e58139cf"] ;
33 -> 34 ;
35 [label="gini = 0.045\nsamples = 43\nvalue = [42, 1]\nclass = norm", fillcolor="#e58139f9"] ;
33 -> 35 ;
36 [label="Som_afstand <= 2.341\ngini = 0.39\nsamples = 83\nvalue = [61, 22]\nclass = norm", fillcolor="#e58139a3"] ;
22 -> 36 ;
37 [label="gini = 0.278\nsamples = 6\nvalue = [1, 5]\nclass = bril", fillcolor="#399de5cc"] ;
36 -> 37 ;
38 [label="AverageStepLength <= 0.596\ngini = 0.344\nsamples = 77\nvalue = [60, 17]\nclass = norm", fillcolor="#e58139b7"] ;
36 -> 38 ;
39 [label="AverageStepLength <= 0.591\ngini = 0.496\nsamples = 11\nvalue = [6, 5]\nclass = norm", fillcolor="#e581392a"] ;
38 -> 39 ;
40 [label="gini = 0.0\nsamples = 5\nvalue = [5, 0]\nclass = norm", fillcolor="#e58139ff"] ;
39 -> 40 ;
41 [label="gini = 0.278\nsamples = 6\nvalue = [1, 5]\nclass = bril", fillcolor="#399de5cc"] ;
39 -> 41 ;
42 [label="AverageStepLength <= 0.616\ngini = 0.298\nsamples = 66\nvalue = [54, 12]\nclass = norm", fillcolor="#e58139c6"] ;
38 -> 42 ;
43 [label="gini = 0.0\nsamples = 17\nvalue = [17, 0]\nclass = norm", fillcolor="#e58139ff"] ;
42 -> 43 ;
44 [label="gini = 0.37\nsamples = 49\nvalue = [37, 12]\nclass = norm", fillcolor="#e58139ac"] ;
42 -> 44 ;
}